<?xml version="1.0" encoding="UTF-8" standalone="yes"?>
<PMML xmlns="http://www.dmg.org/PMML-4_3" version="4.3">
    <Header>
        <Application name="JPMML-SkLearn" version="1.5.3"/>
        <Timestamp>2018-06-20T14:24:18Z</Timestamp>
    </Header>
    <MiningBuildTask>
        <Extension>PMMLPipeline(steps=[('classifier', DecisionTreeClassifier(class_weight=None, criterion='gini', max_depth=None,
            max_features=None, max_leaf_nodes=None,
            min_impurity_decrease=0.0, min_impurity_split=None,
            min_samples_leaf=1, min_samples_split=2,
            min_weight_fraction_leaf=0.0, presort=False, random_state=1,
            splitter='best'))])</Extension>
    </MiningBuildTask>
    <DataDictionary>
        <DataField name="Class" optype="categorical" dataType="integer">
            <Value value="0"/>
            <Value value="1"/>
            <Value value="2"/>
            <Value value="3"/>
            <Value value="4"/>
            <Value value="5"/>
            <Value value="6"/>
            <Value value="7"/>
            <Value value="8"/>
            <Value value="9"/>
        </DataField>
        <DataField name="2" optype="continuous" dataType="float"/>
        <DataField name="3" optype="continuous" dataType="float"/>
        <DataField name="4" optype="continuous" dataType="float"/>
        <DataField name="5" optype="continuous" dataType="float"/>
        <DataField name="6" optype="continuous" dataType="float"/>
        <DataField name="7" optype="continuous" dataType="float"/>
        <DataField name="9" optype="continuous" dataType="float"/>
        <DataField name="10" optype="continuous" dataType="float"/>
        <DataField name="13" optype="continuous" dataType="float"/>
        <DataField name="14" optype="continuous" dataType="float"/>
        <DataField name="17" optype="continuous" dataType="float"/>
        <DataField name="18" optype="continuous" dataType="float"/>
        <DataField name="19" optype="continuous" dataType="float"/>
        <DataField name="20" optype="continuous" dataType="float"/>
        <DataField name="21" optype="continuous" dataType="float"/>
        <DataField name="25" optype="continuous" dataType="float"/>
        <DataField name="26" optype="continuous" dataType="float"/>
        <DataField name="27" optype="continuous" dataType="float"/>
        <DataField name="28" optype="continuous" dataType="float"/>
        <DataField name="29" optype="continuous" dataType="float"/>
        <DataField name="30" optype="continuous" dataType="float"/>
        <DataField name="33" optype="continuous" dataType="float"/>
        <DataField name="34" optype="continuous" dataType="float"/>
        <DataField name="35" optype="continuous" dataType="float"/>
        <DataField name="36" optype="continuous" dataType="float"/>
        <DataField name="37" optype="continuous" dataType="float"/>
        <DataField name="38" optype="continuous" dataType="float"/>
        <DataField name="41" optype="continuous" dataType="float"/>
        <DataField name="42" optype="continuous" dataType="float"/>
        <DataField name="43" optype="continuous" dataType="float"/>
        <DataField name="45" optype="continuous" dataType="float"/>
        <DataField name="46" optype="continuous" dataType="float"/>
        <DataField name="50" optype="continuous" dataType="float"/>
        <DataField name="51" optype="continuous" dataType="float"/>
        <DataField name="52" optype="continuous" dataType="float"/>
        <DataField name="53" optype="continuous" dataType="float"/>
        <DataField name="54" optype="continuous" dataType="float"/>
        <DataField name="55" optype="continuous" dataType="float"/>
        <DataField name="57" optype="continuous" dataType="float"/>
        <DataField name="58" optype="continuous" dataType="float"/>
        <DataField name="59" optype="continuous" dataType="float"/>
        <DataField name="60" optype="continuous" dataType="float"/>
        <DataField name="61" optype="continuous" dataType="float"/>
        <DataField name="62" optype="continuous" dataType="float"/>
        <DataField name="63" optype="continuous" dataType="float"/>
    </DataDictionary>
    <TransformationDictionary>
        <DerivedField name="double(36)" optype="continuous" dataType="double">
            <FieldRef field="36"/>
        </DerivedField>
        <DerivedField name="double(28)" optype="continuous" dataType="double">
            <FieldRef field="28"/>
        </DerivedField>
        <DerivedField name="double(59)" optype="continuous" dataType="double">
            <FieldRef field="59"/>
        </DerivedField>
        <DerivedField name="double(45)" optype="continuous" dataType="double">
            <FieldRef field="45"/>
        </DerivedField>
        <DerivedField name="double(53)" optype="continuous" dataType="double">
            <FieldRef field="53"/>
        </DerivedField>
        <DerivedField name="double(26)" optype="continuous" dataType="double">
            <FieldRef field="26"/>
        </DerivedField>
        <DerivedField name="double(21)" optype="continuous" dataType="double">
            <FieldRef field="21"/>
        </DerivedField>
        <DerivedField name="double(38)" optype="continuous" dataType="double">
            <FieldRef field="38"/>
        </DerivedField>
        <DerivedField name="double(51)" optype="continuous" dataType="double">
            <FieldRef field="51"/>
        </DerivedField>
        <DerivedField name="double(41)" optype="continuous" dataType="double">
            <FieldRef field="41"/>
        </DerivedField>
        <DerivedField name="double(34)" optype="continuous" dataType="double">
            <FieldRef field="34"/>
        </DerivedField>
        <DerivedField name="double(18)" optype="continuous" dataType="double">
            <FieldRef field="18"/>
        </DerivedField>
        <DerivedField name="double(5)" optype="continuous" dataType="double">
            <FieldRef field="5"/>
        </DerivedField>
        <DerivedField name="double(60)" optype="continuous" dataType="double">
            <FieldRef field="60"/>
        </DerivedField>
        <DerivedField name="double(29)" optype="continuous" dataType="double">
            <FieldRef field="29"/>
        </DerivedField>
        <DerivedField name="double(4)" optype="continuous" dataType="double">
            <FieldRef field="4"/>
        </DerivedField>
        <DerivedField name="double(17)" optype="continuous" dataType="double">
            <FieldRef field="17"/>
        </DerivedField>
        <DerivedField name="double(43)" optype="continuous" dataType="double">
            <FieldRef field="43"/>
        </DerivedField>
        <DerivedField name="double(30)" optype="continuous" dataType="double">
            <FieldRef field="30"/>
        </DerivedField>
        <DerivedField name="double(63)" optype="continuous" dataType="double">
            <FieldRef field="63"/>
        </DerivedField>
        <DerivedField name="double(10)" optype="continuous" dataType="double">
            <FieldRef field="10"/>
        </DerivedField>
        <DerivedField name="double(20)" optype="continuous" dataType="double">
            <FieldRef field="20"/>
        </DerivedField>
        <DerivedField name="double(19)" optype="continuous" dataType="double">
            <FieldRef field="19"/>
        </DerivedField>
        <DerivedField name="double(54)" optype="continuous" dataType="double">
            <FieldRef field="54"/>
        </DerivedField>
        <DerivedField name="double(62)" optype="continuous" dataType="double">
            <FieldRef field="62"/>
        </DerivedField>
        <DerivedField name="double(50)" optype="continuous" dataType="double">
            <FieldRef field="50"/>
        </DerivedField>
        <DerivedField name="double(3)" optype="continuous" dataType="double">
            <FieldRef field="3"/>
        </DerivedField>
        <DerivedField name="double(57)" optype="continuous" dataType="double">
            <FieldRef field="57"/>
        </DerivedField>
        <DerivedField name="double(52)" optype="continuous" dataType="double">
            <FieldRef field="52"/>
        </DerivedField>
        <DerivedField name="double(14)" optype="continuous" dataType="double">
            <FieldRef field="14"/>
        </DerivedField>
        <DerivedField name="double(55)" optype="continuous" dataType="double">
            <FieldRef field="55"/>
        </DerivedField>
        <DerivedField name="double(9)" optype="continuous" dataType="double">
            <FieldRef field="9"/>
        </DerivedField>
        <DerivedField name="double(42)" optype="continuous" dataType="double">
            <FieldRef field="42"/>
        </DerivedField>
        <DerivedField name="double(37)" optype="continuous" dataType="double">
            <FieldRef field="37"/>
        </DerivedField>
        <DerivedField name="double(61)" optype="continuous" dataType="double">
            <FieldRef field="61"/>
        </DerivedField>
        <DerivedField name="double(2)" optype="continuous" dataType="double">
            <FieldRef field="2"/>
        </DerivedField>
        <DerivedField name="double(58)" optype="continuous" dataType="double">
            <FieldRef field="58"/>
        </DerivedField>
        <DerivedField name="double(33)" optype="continuous" dataType="double">
            <FieldRef field="33"/>
        </DerivedField>
        <DerivedField name="double(35)" optype="continuous" dataType="double">
            <FieldRef field="35"/>
        </DerivedField>
        <DerivedField name="double(25)" optype="continuous" dataType="double">
            <FieldRef field="25"/>
        </DerivedField>
        <DerivedField name="double(7)" optype="continuous" dataType="double">
            <FieldRef field="7"/>
        </DerivedField>
        <DerivedField name="double(46)" optype="continuous" dataType="double">
            <FieldRef field="46"/>
        </DerivedField>
        <DerivedField name="double(13)" optype="continuous" dataType="double">
            <FieldRef field="13"/>
        </DerivedField>
        <DerivedField name="double(6)" optype="continuous" dataType="double">
            <FieldRef field="6"/>
        </DerivedField>
        <DerivedField name="double(27)" optype="continuous" dataType="double">
            <FieldRef field="27"/>
        </DerivedField>
    </TransformationDictionary>
    <TreeModel functionName="classification" splitCharacteristic="binarySplit">
        <MiningSchema>
            <MiningField name="Class" usageType="target"/>
            <MiningField name="36"/>
            <MiningField name="28"/>
            <MiningField name="59"/>
            <MiningField name="45"/>
            <MiningField name="53"/>
            <MiningField name="26"/>
            <MiningField name="21"/>
            <MiningField name="38"/>
            <MiningField name="51"/>
            <MiningField name="41"/>
            <MiningField name="34"/>
            <MiningField name="18"/>
            <MiningField name="5"/>
            <MiningField name="60"/>
            <MiningField name="29"/>
            <MiningField name="4"/>
            <MiningField name="17"/>
            <MiningField name="43"/>
            <MiningField name="30"/>
            <MiningField name="63"/>
            <MiningField name="10"/>
            <MiningField name="20"/>
            <MiningField name="19"/>
            <MiningField name="54"/>
            <MiningField name="62"/>
            <MiningField name="50"/>
            <MiningField name="3"/>
            <MiningField name="57"/>
            <MiningField name="52"/>
            <MiningField name="14"/>
            <MiningField name="55"/>
            <MiningField name="9"/>
            <MiningField name="42"/>
            <MiningField name="37"/>
            <MiningField name="61"/>
            <MiningField name="2"/>
            <MiningField name="58"/>
            <MiningField name="33"/>
            <MiningField name="35"/>
            <MiningField name="25"/>
            <MiningField name="7"/>
            <MiningField name="46"/>
            <MiningField name="13"/>
            <MiningField name="6"/>
            <MiningField name="27"/>
        </MiningSchema>
        <Output>
            <OutputField name="probability(0)" optype="continuous" dataType="double" feature="probability" value="0"/>
            <OutputField name="probability(1)" optype="continuous" dataType="double" feature="probability" value="1"/>
            <OutputField name="probability(2)" optype="continuous" dataType="double" feature="probability" value="2"/>
            <OutputField name="probability(3)" optype="continuous" dataType="double" feature="probability" value="3"/>
            <OutputField name="probability(4)" optype="continuous" dataType="double" feature="probability" value="4"/>
            <OutputField name="probability(5)" optype="continuous" dataType="double" feature="probability" value="5"/>
            <OutputField name="probability(6)" optype="continuous" dataType="double" feature="probability" value="6"/>
            <OutputField name="probability(7)" optype="continuous" dataType="double" feature="probability" value="7"/>
            <OutputField name="probability(8)" optype="continuous" dataType="double" feature="probability" value="8"/>
            <OutputField name="probability(9)" optype="continuous" dataType="double" feature="probability" value="9"/>
        </Output>
        <Node id="0">
            <True/>
            <Node id="1">
                <SimplePredicate field="double(36)" operator="lessOrEqual" value="0.5"/>
                <Node id="2">
                    <SimplePredicate field="double(28)" operator="lessOrEqual" value="2.5"/>
                    <Node id="3">
                        <SimplePredicate field="double(59)" operator="lessOrEqual" value="6.5"/>
                        <Node id="4" score="4" recordCount="5.0">
                            <SimplePredicate field="double(28)" operator="lessOrEqual" value="1.0"/>
                            <ScoreDistribution value="0" recordCount="0.0"/>
                            <ScoreDistribution value="1" recordCount="0.0"/>
                            <ScoreDistribution value="2" recordCount="0.0"/>
                            <ScoreDistribution value="3" recordCount="0.0"/>
                            <ScoreDistribution value="4" recordCount="5.0"/>
                            <ScoreDistribution value="5" recordCount="0.0"/>
                            <ScoreDistribution value="6" recordCount="0.0"/>
                            <ScoreDistribution value="7" recordCount="0.0"/>
                            <ScoreDistribution value="8" recordCount="0.0"/>
                            <ScoreDistribution value="9" recordCount="0.0"/>
                        </Node>
                        <Node id="5" score="6" recordCount="1.0">
                            <SimplePredicate field="double(28)" operator="greaterThan" value="1.0"/>
                            <ScoreDistribution value="0" recordCount="0.0"/>
                            <ScoreDistribution value="1" recordCount="0.0"/>
                            <ScoreDistribution value="2" recordCount="0.0"/>
                            <ScoreDistribution value="3" recordCount="0.0"/>
                            <ScoreDistribution value="4" recordCount="0.0"/>
                            <ScoreDistribution value="5" recordCount="0.0"/>
                            <ScoreDistribution value="6" recordCount="1.0"/>
                            <ScoreDistribution value="7" recordCount="0.0"/>
                            <ScoreDistribution value="8" recordCount="0.0"/>
                            <ScoreDistribution value="9" recordCount="0.0"/>
                        </Node>
                    </Node>
                    <Node id="6">
                        <SimplePredicate field="double(59)" operator="greaterThan" value="6.5"/>
                        <Node id="7">
                            <SimplePredicate field="double(45)" operator="lessOrEqual" value="0.5"/>
                            <Node id="8" score="5" recordCount="2.0">
                                <SimplePredicate field="double(53)" operator="lessOrEqual" value="7.5"/>
                                <ScoreDistribution value="0" recordCount="0.0"/>
                                <ScoreDistribution value="1" recordCount="0.0"/>
                                <ScoreDistribution value="2" recordCount="0.0"/>
                                <ScoreDistribution value="3" recordCount="0.0"/>
                                <ScoreDistribution value="4" recordCount="0.0"/>
                                <ScoreDistribution value="5" recordCount="2.0"/>
                                <ScoreDistribution value="6" recordCount="0.0"/>
                                <ScoreDistribution value="7" recordCount="0.0"/>
                                <ScoreDistribution value="8" recordCount="0.0"/>
                                <ScoreDistribution value="9" recordCount="0.0"/>
                            </Node>
                            <Node id="9" score="2" recordCount="1.0">
                                <SimplePredicate field="double(53)" operator="greaterThan" value="7.5"/>
                                <ScoreDistribution value="0" recordCount="0.0"/>
                                <ScoreDistribution value="1" recordCount="0.0"/>
                                <ScoreDistribution value="2" recordCount="1.0"/>
                                <ScoreDistribution value="3" recordCount="0.0"/>
                                <ScoreDistribution value="4" recordCount="0.0"/>
                                <ScoreDistribution value="5" recordCount="0.0"/>
                                <ScoreDistribution value="6" recordCount="0.0"/>
                                <ScoreDistribution value="7" recordCount="0.0"/>
                                <ScoreDistribution value="8" recordCount="0.0"/>
                                <ScoreDistribution value="9" recordCount="0.0"/>
                            </Node>
                        </Node>
                        <Node id="10">
                            <SimplePredicate field="double(45)" operator="greaterThan" value="0.5"/>
                            <Node id="11" score="2" recordCount="1.0">
                                <SimplePredicate field="double(26)" operator="lessOrEqual" value="2.0"/>
                                <ScoreDistribution value="0" recordCount="0.0"/>
                                <ScoreDistribution value="1" recordCount="0.0"/>
                                <ScoreDistribution value="2" recordCount="1.0"/>
                                <ScoreDistribution value="3" recordCount="0.0"/>
                                <ScoreDistribution value="4" recordCount="0.0"/>
                                <ScoreDistribution value="5" recordCount="0.0"/>
                                <ScoreDistribution value="6" recordCount="0.0"/>
                                <ScoreDistribution value="7" recordCount="0.0"/>
                                <ScoreDistribution value="8" recordCount="0.0"/>
                                <ScoreDistribution value="9" recordCount="0.0"/>
                            </Node>
                            <Node id="12" score="0" recordCount="112.0">
                                <SimplePredicate field="double(26)" operator="greaterThan" value="2.0"/>
                                <ScoreDistribution value="0" recordCount="112.0"/>
                                <ScoreDistribution value="1" recordCount="0.0"/>
                                <ScoreDistribution value="2" recordCount="0.0"/>
                                <ScoreDistribution value="3" recordCount="0.0"/>
                                <ScoreDistribution value="4" recordCount="0.0"/>
                                <ScoreDistribution value="5" recordCount="0.0"/>
                                <ScoreDistribution value="6" recordCount="0.0"/>
                                <ScoreDistribution value="7" recordCount="0.0"/>
                                <ScoreDistribution value="8" recordCount="0.0"/>
                                <ScoreDistribution value="9" recordCount="0.0"/>
                            </Node>
                        </Node>
                    </Node>
                </Node>
                <Node id="13">
                    <SimplePredicate field="double(28)" operator="greaterThan" value="2.5"/>
                    <Node id="14">
                        <SimplePredicate field="double(21)" operator="lessOrEqual" value="6.5"/>
                        <Node id="15">
                            <SimplePredicate field="double(38)" operator="lessOrEqual" value="3.5"/>
                            <Node id="16" score="9" recordCount="1.0">
                                <SimplePredicate field="double(51)" operator="lessOrEqual" value="7.5"/>
                                <ScoreDistribution value="0" recordCount="0.0"/>
                                <ScoreDistribution value="1" recordCount="0.0"/>
                                <ScoreDistribution value="2" recordCount="0.0"/>
                                <ScoreDistribution value="3" recordCount="0.0"/>
                                <ScoreDistribution value="4" recordCount="0.0"/>
                                <ScoreDistribution value="5" recordCount="0.0"/>
                                <ScoreDistribution value="6" recordCount="0.0"/>
                                <ScoreDistribution value="7" recordCount="0.0"/>
                                <ScoreDistribution value="8" recordCount="0.0"/>
                                <ScoreDistribution value="9" recordCount="1.0"/>
                            </Node>
                            <Node id="17" score="2" recordCount="2.0">
                                <SimplePredicate field="double(51)" operator="greaterThan" value="7.5"/>
                                <ScoreDistribution value="0" recordCount="0.0"/>
                                <ScoreDistribution value="1" recordCount="0.0"/>
                                <ScoreDistribution value="2" recordCount="2.0"/>
                                <ScoreDistribution value="3" recordCount="0.0"/>
                                <ScoreDistribution value="4" recordCount="0.0"/>
                                <ScoreDistribution value="5" recordCount="0.0"/>
                                <ScoreDistribution value="6" recordCount="0.0"/>
                                <ScoreDistribution value="7" recordCount="0.0"/>
                                <ScoreDistribution value="8" recordCount="0.0"/>
                                <ScoreDistribution value="9" recordCount="0.0"/>
                            </Node>
                        </Node>
                        <Node id="18">
                            <SimplePredicate field="double(38)" operator="greaterThan" value="3.5"/>
                            <Node id="19" score="5" recordCount="13.0">
                                <SimplePredicate field="double(41)" operator="lessOrEqual" value="1.5"/>
                                <ScoreDistribution value="0" recordCount="0.0"/>
                                <ScoreDistribution value="1" recordCount="0.0"/>
                                <ScoreDistribution value="2" recordCount="0.0"/>
                                <ScoreDistribution value="3" recordCount="0.0"/>
                                <ScoreDistribution value="4" recordCount="0.0"/>
                                <ScoreDistribution value="5" recordCount="13.0"/>
                                <ScoreDistribution value="6" recordCount="0.0"/>
                                <ScoreDistribution value="7" recordCount="0.0"/>
                                <ScoreDistribution value="8" recordCount="0.0"/>
                                <ScoreDistribution value="9" recordCount="0.0"/>
                            </Node>
                            <Node id="20" score="6" recordCount="1.0">
                                <SimplePredicate field="double(41)" operator="greaterThan" value="1.5"/>
                                <ScoreDistribution value="0" recordCount="0.0"/>
                                <ScoreDistribution value="1" recordCount="0.0"/>
                                <ScoreDistribution value="2" recordCount="0.0"/>
                                <ScoreDistribution value="3" recordCount="0.0"/>
                                <ScoreDistribution value="4" recordCount="0.0"/>
                                <ScoreDistribution value="5" recordCount="0.0"/>
                                <ScoreDistribution value="6" recordCount="1.0"/>
                                <ScoreDistribution value="7" recordCount="0.0"/>
                                <ScoreDistribution value="8" recordCount="0.0"/>
                                <ScoreDistribution value="9" recordCount="0.0"/>
                            </Node>
                        </Node>
                    </Node>
                    <Node id="21">
                        <SimplePredicate field="double(21)" operator="greaterThan" value="6.5"/>
                        <Node id="22">
                            <SimplePredicate field="double(34)" operator="lessOrEqual" value="7.5"/>
                            <Node id="23" score="3" recordCount="1.0">
                                <SimplePredicate field="double(18)" operator="lessOrEqual" value="2.0"/>
                                <ScoreDistribution value="0" recordCount="0.0"/>
                                <ScoreDistribution value="1" recordCount="0.0"/>
                                <ScoreDistribution value="2" recordCount="0.0"/>
                                <ScoreDistribution value="3" recordCount="1.0"/>
                                <ScoreDistribution value="4" recordCount="0.0"/>
                                <ScoreDistribution value="5" recordCount="0.0"/>
                                <ScoreDistribution value="6" recordCount="0.0"/>
                                <ScoreDistribution value="7" recordCount="0.0"/>
                                <ScoreDistribution value="8" recordCount="0.0"/>
                                <ScoreDistribution value="9" recordCount="0.0"/>
                            </Node>
                            <Node id="24" score="9" recordCount="41.0">
                                <SimplePredicate field="double(18)" operator="greaterThan" value="2.0"/>
                                <ScoreDistribution value="0" recordCount="0.0"/>
                                <ScoreDistribution value="1" recordCount="0.0"/>
                                <ScoreDistribution value="2" recordCount="0.0"/>
                                <ScoreDistribution value="3" recordCount="0.0"/>
                                <ScoreDistribution value="4" recordCount="0.0"/>
                                <ScoreDistribution value="5" recordCount="0.0"/>
                                <ScoreDistribution value="6" recordCount="0.0"/>
                                <ScoreDistribution value="7" recordCount="0.0"/>
                                <ScoreDistribution value="8" recordCount="0.0"/>
                                <ScoreDistribution value="9" recordCount="41.0"/>
                            </Node>
                        </Node>
                        <Node id="25">
                            <SimplePredicate field="double(34)" operator="greaterThan" value="7.5"/>
                            <Node id="26" score="0" recordCount="1.0">
                                <SimplePredicate field="double(5)" operator="lessOrEqual" value="5.0"/>
                                <ScoreDistribution value="0" recordCount="1.0"/>
                                <ScoreDistribution value="1" recordCount="0.0"/>
                                <ScoreDistribution value="2" recordCount="0.0"/>
                                <ScoreDistribution value="3" recordCount="0.0"/>
                                <ScoreDistribution value="4" recordCount="0.0"/>
                                <ScoreDistribution value="5" recordCount="0.0"/>
                                <ScoreDistribution value="6" recordCount="0.0"/>
                                <ScoreDistribution value="7" recordCount="0.0"/>
                                <ScoreDistribution value="8" recordCount="0.0"/>
                                <ScoreDistribution value="9" recordCount="0.0"/>
                            </Node>
                            <Node id="27" score="8" recordCount="3.0">
                                <SimplePredicate field="double(5)" operator="greaterThan" value="5.0"/>
                                <ScoreDistribution value="0" recordCount="0.0"/>
                                <ScoreDistribution value="1" recordCount="0.0"/>
                                <ScoreDistribution value="2" recordCount="0.0"/>
                                <ScoreDistribution value="3" recordCount="0.0"/>
                                <ScoreDistribution value="4" recordCount="0.0"/>
                                <ScoreDistribution value="5" recordCount="0.0"/>
                                <ScoreDistribution value="6" recordCount="0.0"/>
                                <ScoreDistribution value="7" recordCount="0.0"/>
                                <ScoreDistribution value="8" recordCount="3.0"/>
                                <ScoreDistribution value="9" recordCount="0.0"/>
                            </Node>
                        </Node>
                    </Node>
                </Node>
            </Node>
            <Node id="28">
                <SimplePredicate field="double(36)" operator="greaterThan" value="0.5"/>
                <Node id="29">
                    <SimplePredicate field="double(60)" operator="lessOrEqual" value="2.5"/>
                    <Node id="30">
                        <SimplePredicate field="double(26)" operator="lessOrEqual" value="12.5"/>
                        <Node id="31">
                            <SimplePredicate field="double(29)" operator="lessOrEqual" value="0.5"/>
                            <Node id="32" score="7" recordCount="1.0">
                                <SimplePredicate field="double(59)" operator="lessOrEqual" value="10.0"/>
                                <ScoreDistribution value="0" recordCount="0.0"/>
                                <ScoreDistribution value="1" recordCount="0.0"/>
                                <ScoreDistribution value="2" recordCount="0.0"/>
                                <ScoreDistribution value="3" recordCount="0.0"/>
                                <ScoreDistribution value="4" recordCount="0.0"/>
                                <ScoreDistribution value="5" recordCount="0.0"/>
                                <ScoreDistribution value="6" recordCount="0.0"/>
                                <ScoreDistribution value="7" recordCount="1.0"/>
                                <ScoreDistribution value="8" recordCount="0.0"/>
                                <ScoreDistribution value="9" recordCount="0.0"/>
                            </Node>
                            <Node id="33" score="5" recordCount="3.0">
                                <SimplePredicate field="double(59)" operator="greaterThan" value="10.0"/>
                                <ScoreDistribution value="0" recordCount="0.0"/>
                                <ScoreDistribution value="1" recordCount="0.0"/>
                                <ScoreDistribution value="2" recordCount="0.0"/>
                                <ScoreDistribution value="3" recordCount="0.0"/>
                                <ScoreDistribution value="4" recordCount="0.0"/>
                                <ScoreDistribution value="5" recordCount="3.0"/>
                                <ScoreDistribution value="6" recordCount="0.0"/>
                                <ScoreDistribution value="7" recordCount="0.0"/>
                                <ScoreDistribution value="8" recordCount="0.0"/>
                                <ScoreDistribution value="9" recordCount="0.0"/>
                            </Node>
                        </Node>
                        <Node id="34" score="7" recordCount="83.0">
                            <SimplePredicate field="double(29)" operator="greaterThan" value="0.5"/>
                            <ScoreDistribution value="0" recordCount="0.0"/>
                            <ScoreDistribution value="1" recordCount="0.0"/>
                            <ScoreDistribution value="2" recordCount="0.0"/>
                            <ScoreDistribution value="3" recordCount="0.0"/>
                            <ScoreDistribution value="4" recordCount="0.0"/>
                            <ScoreDistribution value="5" recordCount="0.0"/>
                            <ScoreDistribution value="6" recordCount="0.0"/>
                            <ScoreDistribution value="7" recordCount="83.0"/>
                            <ScoreDistribution value="8" recordCount="0.0"/>
                            <ScoreDistribution value="9" recordCount="0.0"/>
                        </Node>
                    </Node>
                    <Node id="35">
                        <SimplePredicate field="double(26)" operator="greaterThan" value="12.5"/>
                        <Node id="36" score="5" recordCount="10.0">
                            <SimplePredicate field="double(21)" operator="lessOrEqual" value="2.0"/>
                            <ScoreDistribution value="0" recordCount="0.0"/>
                            <ScoreDistribution value="1" recordCount="0.0"/>
                            <ScoreDistribution value="2" recordCount="0.0"/>
                            <ScoreDistribution value="3" recordCount="0.0"/>
                            <ScoreDistribution value="4" recordCount="0.0"/>
                            <ScoreDistribution value="5" recordCount="10.0"/>
                            <ScoreDistribution value="6" recordCount="0.0"/>
                            <ScoreDistribution value="7" recordCount="0.0"/>
                            <ScoreDistribution value="8" recordCount="0.0"/>
                            <ScoreDistribution value="9" recordCount="0.0"/>
                        </Node>
                        <Node id="37">
                            <SimplePredicate field="double(21)" operator="greaterThan" value="2.0"/>
                            <Node id="38" score="4" recordCount="5.0">
                                <SimplePredicate field="double(4)" operator="lessOrEqual" value="9.0"/>
                                <ScoreDistribution value="0" recordCount="0.0"/>
                                <ScoreDistribution value="1" recordCount="0.0"/>
                                <ScoreDistribution value="2" recordCount="0.0"/>
                                <ScoreDistribution value="3" recordCount="0.0"/>
                                <ScoreDistribution value="4" recordCount="5.0"/>
                                <ScoreDistribution value="5" recordCount="0.0"/>
                                <ScoreDistribution value="6" recordCount="0.0"/>
                                <ScoreDistribution value="7" recordCount="0.0"/>
                                <ScoreDistribution value="8" recordCount="0.0"/>
                                <ScoreDistribution value="9" recordCount="0.0"/>
                            </Node>
                            <Node id="39">
                                <SimplePredicate field="double(4)" operator="greaterThan" value="9.0"/>
                                <Node id="40" score="7" recordCount="5.0">
                                    <SimplePredicate field="double(17)" operator="lessOrEqual" value="1.5"/>
                                    <ScoreDistribution value="0" recordCount="0.0"/>
                                    <ScoreDistribution value="1" recordCount="0.0"/>
                                    <ScoreDistribution value="2" recordCount="0.0"/>
                                    <ScoreDistribution value="3" recordCount="0.0"/>
                                    <ScoreDistribution value="4" recordCount="0.0"/>
                                    <ScoreDistribution value="5" recordCount="0.0"/>
                                    <ScoreDistribution value="6" recordCount="0.0"/>
                                    <ScoreDistribution value="7" recordCount="5.0"/>
                                    <ScoreDistribution value="8" recordCount="0.0"/>
                                    <ScoreDistribution value="9" recordCount="0.0"/>
                                </Node>
                                <Node id="41" score="9" recordCount="6.0">
                                    <SimplePredicate field="double(17)" operator="greaterThan" value="1.5"/>
                                    <ScoreDistribution value="0" recordCount="0.0"/>
                                    <ScoreDistribution value="1" recordCount="0.0"/>
                                    <ScoreDistribution value="2" recordCount="0.0"/>
                                    <ScoreDistribution value="3" recordCount="0.0"/>
                                    <ScoreDistribution value="4" recordCount="0.0"/>
                                    <ScoreDistribution value="5" recordCount="0.0"/>
                                    <ScoreDistribution value="6" recordCount="0.0"/>
                                    <ScoreDistribution value="7" recordCount="0.0"/>
                                    <ScoreDistribution value="8" recordCount="0.0"/>
                                    <ScoreDistribution value="9" recordCount="6.0"/>
                                </Node>
                            </Node>
                        </Node>
                    </Node>
                </Node>
                <Node id="42">
                    <SimplePredicate field="double(60)" operator="greaterThan" value="2.5"/>
                    <Node id="43">
                        <SimplePredicate field="double(26)" operator="lessOrEqual" value="5.5"/>
                        <Node id="44">
                            <SimplePredicate field="double(43)" operator="lessOrEqual" value="2.5"/>
                            <Node id="45">
                                <SimplePredicate field="double(30)" operator="lessOrEqual" value="2.0"/>
                                <Node id="46">
                                    <SimplePredicate field="double(63)" operator="lessOrEqual" value="3.0"/>
                                    <Node id="47">
                                        <SimplePredicate field="double(34)" operator="lessOrEqual" value="5.5"/>
                                        <Node id="48" score="1" recordCount="1.0">
                                            <SimplePredicate field="double(59)" operator="lessOrEqual" value="5.5"/>
                                            <ScoreDistribution value="0" recordCount="0.0"/>
                                            <ScoreDistribution value="1" recordCount="1.0"/>
                                            <ScoreDistribution value="2" recordCount="0.0"/>
                                            <ScoreDistribution value="3" recordCount="0.0"/>
                                            <ScoreDistribution value="4" recordCount="0.0"/>
                                            <ScoreDistribution value="5" recordCount="0.0"/>
                                            <ScoreDistribution value="6" recordCount="0.0"/>
                                            <ScoreDistribution value="7" recordCount="0.0"/>
                                            <ScoreDistribution value="8" recordCount="0.0"/>
                                            <ScoreDistribution value="9" recordCount="0.0"/>
                                        </Node>
                                        <Node id="49">
                                            <SimplePredicate field="double(59)" operator="greaterThan" value="5.5"/>
                                            <Node id="50">
                                                <SimplePredicate field="double(4)" operator="lessOrEqual" value="7.5"/>
                                                <Node id="51" score="3" recordCount="4.0">
                                                    <SimplePredicate field="double(29)" operator="lessOrEqual" value="11.5"/>
                                                    <ScoreDistribution value="0" recordCount="0.0"/>
                                                    <ScoreDistribution value="1" recordCount="0.0"/>
                                                    <ScoreDistribution value="2" recordCount="0.0"/>
                                                    <ScoreDistribution value="3" recordCount="4.0"/>
                                                    <ScoreDistribution value="4" recordCount="0.0"/>
                                                    <ScoreDistribution value="5" recordCount="0.0"/>
                                                    <ScoreDistribution value="6" recordCount="0.0"/>
                                                    <ScoreDistribution value="7" recordCount="0.0"/>
                                                    <ScoreDistribution value="8" recordCount="0.0"/>
                                                    <ScoreDistribution value="9" recordCount="0.0"/>
                                                </Node>
                                                <Node id="52" score="9" recordCount="1.0">
                                                    <SimplePredicate field="double(29)" operator="greaterThan" value="11.5"/>
                                                    <ScoreDistribution value="0" recordCount="0.0"/>
                                                    <ScoreDistribution value="1" recordCount="0.0"/>
                                                    <ScoreDistribution value="2" recordCount="0.0"/>
                                                    <ScoreDistribution value="3" recordCount="0.0"/>
                                                    <ScoreDistribution value="4" recordCount="0.0"/>
                                                    <ScoreDistribution value="5" recordCount="0.0"/>
                                                    <ScoreDistribution value="6" recordCount="0.0"/>
                                                    <ScoreDistribution value="7" recordCount="0.0"/>
                                                    <ScoreDistribution value="8" recordCount="0.0"/>
                                                    <ScoreDistribution value="9" recordCount="1.0"/>
                                                </Node>
                                            </Node>
                                            <Node id="53" score="3" recordCount="101.0">
                                                <SimplePredicate field="double(4)" operator="greaterThan" value="7.5"/>
                                                <ScoreDistribution value="0" recordCount="0.0"/>
                                                <ScoreDistribution value="1" recordCount="0.0"/>
                                                <ScoreDistribution value="2" recordCount="0.0"/>
                                                <ScoreDistribution value="3" recordCount="101.0"/>
                                                <ScoreDistribution value="4" recordCount="0.0"/>
                                                <ScoreDistribution value="5" recordCount="0.0"/>
                                                <ScoreDistribution value="6" recordCount="0.0"/>
                                                <ScoreDistribution value="7" recordCount="0.0"/>
                                                <ScoreDistribution value="8" recordCount="0.0"/>
                                                <ScoreDistribution value="9" recordCount="0.0"/>
                                            </Node>
                                        </Node>
                                    </Node>
                                    <Node id="54">
                                        <SimplePredicate field="double(34)" operator="greaterThan" value="5.5"/>
                                        <Node id="55" score="3" recordCount="3.0">
                                            <SimplePredicate field="double(21)" operator="lessOrEqual" value="10.5"/>
                                            <ScoreDistribution value="0" recordCount="0.0"/>
                                            <ScoreDistribution value="1" recordCount="0.0"/>
                                            <ScoreDistribution value="2" recordCount="0.0"/>
                                            <ScoreDistribution value="3" recordCount="3.0"/>
                                            <ScoreDistribution value="4" recordCount="0.0"/>
                                            <ScoreDistribution value="5" recordCount="0.0"/>
                                            <ScoreDistribution value="6" recordCount="0.0"/>
                                            <ScoreDistribution value="7" recordCount="0.0"/>
                                            <ScoreDistribution value="8" recordCount="0.0"/>
                                            <ScoreDistribution value="9" recordCount="0.0"/>
                                        </Node>
                                        <Node id="56" score="8" recordCount="4.0">
                                            <SimplePredicate field="double(21)" operator="greaterThan" value="10.5"/>
                                            <ScoreDistribution value="0" recordCount="0.0"/>
                                            <ScoreDistribution value="1" recordCount="0.0"/>
                                            <ScoreDistribution value="2" recordCount="0.0"/>
                                            <ScoreDistribution value="3" recordCount="0.0"/>
                                            <ScoreDistribution value="4" recordCount="0.0"/>
                                            <ScoreDistribution value="5" recordCount="0.0"/>
                                            <ScoreDistribution value="6" recordCount="0.0"/>
                                            <ScoreDistribution value="7" recordCount="0.0"/>
                                            <ScoreDistribution value="8" recordCount="4.0"/>
                                            <ScoreDistribution value="9" recordCount="0.0"/>
                                        </Node>
                                    </Node>
                                </Node>
                                <Node id="57">
                                    <SimplePredicate field="double(63)" operator="greaterThan" value="3.0"/>
                                    <Node id="58" score="1" recordCount="2.0">
                                        <SimplePredicate field="double(10)" operator="lessOrEqual" value="11.5"/>
                                        <ScoreDistribution value="0" recordCount="0.0"/>
                                        <ScoreDistribution value="1" recordCount="2.0"/>
                                        <ScoreDistribution value="2" recordCount="0.0"/>
                                        <ScoreDistribution value="3" recordCount="0.0"/>
                                        <ScoreDistribution value="4" recordCount="0.0"/>
                                        <ScoreDistribution value="5" recordCount="0.0"/>
                                        <ScoreDistribution value="6" recordCount="0.0"/>
                                        <ScoreDistribution value="7" recordCount="0.0"/>
                                        <ScoreDistribution value="8" recordCount="0.0"/>
                                        <ScoreDistribution value="9" recordCount="0.0"/>
                                    </Node>
                                    <Node id="59" score="2" recordCount="2.0">
                                        <SimplePredicate field="double(10)" operator="greaterThan" value="11.5"/>
                                        <ScoreDistribution value="0" recordCount="0.0"/>
                                        <ScoreDistribution value="1" recordCount="0.0"/>
                                        <ScoreDistribution value="2" recordCount="2.0"/>
                                        <ScoreDistribution value="3" recordCount="0.0"/>
                                        <ScoreDistribution value="4" recordCount="0.0"/>
                                        <ScoreDistribution value="5" recordCount="0.0"/>
                                        <ScoreDistribution value="6" recordCount="0.0"/>
                                        <ScoreDistribution value="7" recordCount="0.0"/>
                                        <ScoreDistribution value="8" recordCount="0.0"/>
                                        <ScoreDistribution value="9" recordCount="0.0"/>
                                    </Node>
                                </Node>
                            </Node>
                            <Node id="60">
                                <SimplePredicate field="double(30)" operator="greaterThan" value="2.0"/>
                                <Node id="61">
                                    <SimplePredicate field="double(20)" operator="lessOrEqual" value="3.5"/>
                                    <Node id="62" score="7" recordCount="2.0">
                                        <SimplePredicate field="double(19)" operator="lessOrEqual" value="3.5"/>
                                        <ScoreDistribution value="0" recordCount="0.0"/>
                                        <ScoreDistribution value="1" recordCount="0.0"/>
                                        <ScoreDistribution value="2" recordCount="0.0"/>
                                        <ScoreDistribution value="3" recordCount="0.0"/>
                                        <ScoreDistribution value="4" recordCount="0.0"/>
                                        <ScoreDistribution value="5" recordCount="0.0"/>
                                        <ScoreDistribution value="6" recordCount="0.0"/>
                                        <ScoreDistribution value="7" recordCount="2.0"/>
                                        <ScoreDistribution value="8" recordCount="0.0"/>
                                        <ScoreDistribution value="9" recordCount="0.0"/>
                                    </Node>
                                    <Node id="63" score="2" recordCount="2.0">
                                        <SimplePredicate field="double(19)" operator="greaterThan" value="3.5"/>
                                        <ScoreDistribution value="0" recordCount="0.0"/>
                                        <ScoreDistribution value="1" recordCount="0.0"/>
                                        <ScoreDistribution value="2" recordCount="2.0"/>
                                        <ScoreDistribution value="3" recordCount="0.0"/>
                                        <ScoreDistribution value="4" recordCount="0.0"/>
                                        <ScoreDistribution value="5" recordCount="0.0"/>
                                        <ScoreDistribution value="6" recordCount="0.0"/>
                                        <ScoreDistribution value="7" recordCount="0.0"/>
                                        <ScoreDistribution value="8" recordCount="0.0"/>
                                        <ScoreDistribution value="9" recordCount="0.0"/>
                                    </Node>
                                </Node>
                                <Node id="64" score="9" recordCount="5.0">
                                    <SimplePredicate field="double(20)" operator="greaterThan" value="3.5"/>
                                    <ScoreDistribution value="0" recordCount="0.0"/>
                                    <ScoreDistribution value="1" recordCount="0.0"/>
                                    <ScoreDistribution value="2" recordCount="0.0"/>
                                    <ScoreDistribution value="3" recordCount="0.0"/>
                                    <ScoreDistribution value="4" recordCount="0.0"/>
                                    <ScoreDistribution value="5" recordCount="0.0"/>
                                    <ScoreDistribution value="6" recordCount="0.0"/>
                                    <ScoreDistribution value="7" recordCount="0.0"/>
                                    <ScoreDistribution value="8" recordCount="0.0"/>
                                    <ScoreDistribution value="9" recordCount="5.0"/>
                                </Node>
                            </Node>
                        </Node>
                        <Node id="65">
                            <SimplePredicate field="double(43)" operator="greaterThan" value="2.5"/>
                            <Node id="66">
                                <SimplePredicate field="double(54)" operator="lessOrEqual" value="1.5"/>
                                <Node id="67">
                                    <SimplePredicate field="double(38)" operator="lessOrEqual" value="1.5"/>
                                    <Node id="68">
                                        <SimplePredicate field="double(10)" operator="lessOrEqual" value="6.5"/>
                                        <Node id="69" score="8" recordCount="2.0">
                                            <SimplePredicate field="double(20)" operator="lessOrEqual" value="10.5"/>
                                            <ScoreDistribution value="0" recordCount="0.0"/>
                                            <ScoreDistribution value="1" recordCount="0.0"/>
                                            <ScoreDistribution value="2" recordCount="0.0"/>
                                            <ScoreDistribution value="3" recordCount="0.0"/>
                                            <ScoreDistribution value="4" recordCount="0.0"/>
                                            <ScoreDistribution value="5" recordCount="0.0"/>
                                            <ScoreDistribution value="6" recordCount="0.0"/>
                                            <ScoreDistribution value="7" recordCount="0.0"/>
                                            <ScoreDistribution value="8" recordCount="2.0"/>
                                            <ScoreDistribution value="9" recordCount="0.0"/>
                                        </Node>
                                        <Node id="70">
                                            <SimplePredicate field="double(20)" operator="greaterThan" value="10.5"/>
                                            <Node id="71" score="1" recordCount="25.0">
                                                <SimplePredicate field="double(62)" operator="lessOrEqual" value="10.0"/>
                                                <ScoreDistribution value="0" recordCount="0.0"/>
                                                <ScoreDistribution value="1" recordCount="25.0"/>
                                                <ScoreDistribution value="2" recordCount="0.0"/>
                                                <ScoreDistribution value="3" recordCount="0.0"/>
                                                <ScoreDistribution value="4" recordCount="0.0"/>
                                                <ScoreDistribution value="5" recordCount="0.0"/>
                                                <ScoreDistribution value="6" recordCount="0.0"/>
                                                <ScoreDistribution value="7" recordCount="0.0"/>
                                                <ScoreDistribution value="8" recordCount="0.0"/>
                                                <ScoreDistribution value="9" recordCount="0.0"/>
                                            </Node>
                                            <Node id="72" score="2" recordCount="1.0">
                                                <SimplePredicate field="double(62)" operator="greaterThan" value="10.0"/>
                                                <ScoreDistribution value="0" recordCount="0.0"/>
                                                <ScoreDistribution value="1" recordCount="0.0"/>
                                                <ScoreDistribution value="2" recordCount="1.0"/>
                                                <ScoreDistribution value="3" recordCount="0.0"/>
                                                <ScoreDistribution value="4" recordCount="0.0"/>
                                                <ScoreDistribution value="5" recordCount="0.0"/>
                                                <ScoreDistribution value="6" recordCount="0.0"/>
                                                <ScoreDistribution value="7" recordCount="0.0"/>
                                                <ScoreDistribution value="8" recordCount="0.0"/>
                                                <ScoreDistribution value="9" recordCount="0.0"/>
                                            </Node>
                                        </Node>
                                    </Node>
                                    <Node id="73">
                                        <SimplePredicate field="double(10)" operator="greaterThan" value="6.5"/>
                                        <Node id="74" score="3" recordCount="7.0">
                                            <SimplePredicate field="double(18)" operator="lessOrEqual" value="0.5"/>
                                            <ScoreDistribution value="0" recordCount="0.0"/>
                                            <ScoreDistribution value="1" recordCount="0.0"/>
                                            <ScoreDistribution value="2" recordCount="0.0"/>
                                            <ScoreDistribution value="3" recordCount="7.0"/>
                                            <ScoreDistribution value="4" recordCount="0.0"/>
                                            <ScoreDistribution value="5" recordCount="0.0"/>
                                            <ScoreDistribution value="6" recordCount="0.0"/>
                                            <ScoreDistribution value="7" recordCount="0.0"/>
                                            <ScoreDistribution value="8" recordCount="0.0"/>
                                            <ScoreDistribution value="9" recordCount="0.0"/>
                                        </Node>
                                        <Node id="75">
                                            <SimplePredicate field="double(18)" operator="greaterThan" value="0.5"/>
                                            <Node id="76">
                                                <SimplePredicate field="double(50)" operator="lessOrEqual" value="9.5"/>
                                                <Node id="77">
                                                    <SimplePredicate field="double(51)" operator="lessOrEqual" value="13.0"/>
                                                    <Node id="78" score="7" recordCount="1.0">
                                                        <SimplePredicate field="double(3)" operator="lessOrEqual" value="8.5"/>
                                                        <ScoreDistribution value="0" recordCount="0.0"/>
                                                        <ScoreDistribution value="1" recordCount="0.0"/>
                                                        <ScoreDistribution value="2" recordCount="0.0"/>
                                                        <ScoreDistribution value="3" recordCount="0.0"/>
                                                        <ScoreDistribution value="4" recordCount="0.0"/>
                                                        <ScoreDistribution value="5" recordCount="0.0"/>
                                                        <ScoreDistribution value="6" recordCount="0.0"/>
                                                        <ScoreDistribution value="7" recordCount="1.0"/>
                                                        <ScoreDistribution value="8" recordCount="0.0"/>
                                                        <ScoreDistribution value="9" recordCount="0.0"/>
                                                    </Node>
                                                    <Node id="79">
                                                        <SimplePredicate field="double(3)" operator="greaterThan" value="8.5"/>
                                                        <Node id="80" score="3" recordCount="1.0">
                                                            <SimplePredicate field="double(50)" operator="lessOrEqual" value="4.0"/>
                                                            <ScoreDistribution value="0" recordCount="0.0"/>
                                                            <ScoreDistribution value="1" recordCount="0.0"/>
                                                            <ScoreDistribution value="2" recordCount="0.0"/>
                                                            <ScoreDistribution value="3" recordCount="1.0"/>
                                                            <ScoreDistribution value="4" recordCount="0.0"/>
                                                            <ScoreDistribution value="5" recordCount="0.0"/>
                                                            <ScoreDistribution value="6" recordCount="0.0"/>
                                                            <ScoreDistribution value="7" recordCount="0.0"/>
                                                            <ScoreDistribution value="8" recordCount="0.0"/>
                                                            <ScoreDistribution value="9" recordCount="0.0"/>
                                                        </Node>
                                                        <Node id="81">
                                                            <SimplePredicate field="double(50)" operator="greaterThan" value="4.0"/>
                                                            <Node id="82" score="5" recordCount="1.0">
                                                                <SimplePredicate field="double(57)" operator="lessOrEqual" value="1.5"/>
                                                                <ScoreDistribution value="0" recordCount="0.0"/>
                                                                <ScoreDistribution value="1" recordCount="0.0"/>
                                                                <ScoreDistribution value="2" recordCount="0.0"/>
                                                                <ScoreDistribution value="3" recordCount="0.0"/>
                                                                <ScoreDistribution value="4" recordCount="0.0"/>
                                                                <ScoreDistribution value="5" recordCount="1.0"/>
                                                                <ScoreDistribution value="6" recordCount="0.0"/>
                                                                <ScoreDistribution value="7" recordCount="0.0"/>
                                                                <ScoreDistribution value="8" recordCount="0.0"/>
                                                                <ScoreDistribution value="9" recordCount="0.0"/>
                                                            </Node>
                                                            <Node id="83" score="8" recordCount="1.0">
                                                                <SimplePredicate field="double(57)" operator="greaterThan" value="1.5"/>
                                                                <ScoreDistribution value="0" recordCount="0.0"/>
                                                                <ScoreDistribution value="1" recordCount="0.0"/>
                                                                <ScoreDistribution value="2" recordCount="0.0"/>
                                                                <ScoreDistribution value="3" recordCount="0.0"/>
                                                                <ScoreDistribution value="4" recordCount="0.0"/>
                                                                <ScoreDistribution value="5" recordCount="0.0"/>
                                                                <ScoreDistribution value="6" recordCount="0.0"/>
                                                                <ScoreDistribution value="7" recordCount="0.0"/>
                                                                <ScoreDistribution value="8" recordCount="1.0"/>
                                                                <ScoreDistribution value="9" recordCount="0.0"/>
                                                            </Node>
                                                        </Node>
                                                    </Node>
                                                </Node>
                                                <Node id="84">
                                                    <SimplePredicate field="double(51)" operator="greaterThan" value="13.0"/>
                                                    <Node id="85" score="2" recordCount="3.0">
                                                        <SimplePredicate field="double(52)" operator="lessOrEqual" value="13.0"/>
                                                        <ScoreDistribution value="0" recordCount="0.0"/>
                                                        <ScoreDistribution value="1" recordCount="0.0"/>
                                                        <ScoreDistribution value="2" recordCount="3.0"/>
                                                        <ScoreDistribution value="3" recordCount="0.0"/>
                                                        <ScoreDistribution value="4" recordCount="0.0"/>
                                                        <ScoreDistribution value="5" recordCount="0.0"/>
                                                        <ScoreDistribution value="6" recordCount="0.0"/>
                                                        <ScoreDistribution value="7" recordCount="0.0"/>
                                                        <ScoreDistribution value="8" recordCount="0.0"/>
                                                        <ScoreDistribution value="9" recordCount="0.0"/>
                                                    </Node>
                                                    <Node id="86" score="1" recordCount="1.0">
                                                        <SimplePredicate field="double(52)" operator="greaterThan" value="13.0"/>
                                                        <ScoreDistribution value="0" recordCount="0.0"/>
                                                        <ScoreDistribution value="1" recordCount="1.0"/>
                                                        <ScoreDistribution value="2" recordCount="0.0"/>
                                                        <ScoreDistribution value="3" recordCount="0.0"/>
                                                        <ScoreDistribution value="4" recordCount="0.0"/>
                                                        <ScoreDistribution value="5" recordCount="0.0"/>
                                                        <ScoreDistribution value="6" recordCount="0.0"/>
                                                        <ScoreDistribution value="7" recordCount="0.0"/>
                                                        <ScoreDistribution value="8" recordCount="0.0"/>
                                                        <ScoreDistribution value="9" recordCount="0.0"/>
                                                    </Node>
                                                </Node>
                                            </Node>
                                            <Node id="87">
                                                <SimplePredicate field="double(50)" operator="greaterThan" value="9.5"/>
                                                <Node id="88">
                                                    <SimplePredicate field="double(21)" operator="lessOrEqual" value="2.5"/>
                                                    <Node id="89" score="2" recordCount="1.0">
                                                        <SimplePredicate field="double(14)" operator="lessOrEqual" value="0.5"/>
                                                        <ScoreDistribution value="0" recordCount="0.0"/>
                                                        <ScoreDistribution value="1" recordCount="0.0"/>
                                                        <ScoreDistribution value="2" recordCount="1.0"/>
                                                        <ScoreDistribution value="3" recordCount="0.0"/>
                                                        <ScoreDistribution value="4" recordCount="0.0"/>
                                                        <ScoreDistribution value="5" recordCount="0.0"/>
                                                        <ScoreDistribution value="6" recordCount="0.0"/>
                                                        <ScoreDistribution value="7" recordCount="0.0"/>
                                                        <ScoreDistribution value="8" recordCount="0.0"/>
                                                        <ScoreDistribution value="9" recordCount="0.0"/>
                                                    </Node>
                                                    <Node id="90" score="5" recordCount="1.0">
                                                        <SimplePredicate field="double(14)" operator="greaterThan" value="0.5"/>
                                                        <ScoreDistribution value="0" recordCount="0.0"/>
                                                        <ScoreDistribution value="1" recordCount="0.0"/>
                                                        <ScoreDistribution value="2" recordCount="0.0"/>
                                                        <ScoreDistribution value="3" recordCount="0.0"/>
                                                        <ScoreDistribution value="4" recordCount="0.0"/>
                                                        <ScoreDistribution value="5" recordCount="1.0"/>
                                                        <ScoreDistribution value="6" recordCount="0.0"/>
                                                        <ScoreDistribution value="7" recordCount="0.0"/>
                                                        <ScoreDistribution value="8" recordCount="0.0"/>
                                                        <ScoreDistribution value="9" recordCount="0.0"/>
                                                    </Node>
                                                </Node>
                                                <Node id="91" score="8" recordCount="22.0">
                                                    <SimplePredicate field="double(21)" operator="greaterThan" value="2.5"/>
                                                    <ScoreDistribution value="0" recordCount="0.0"/>
                                                    <ScoreDistribution value="1" recordCount="0.0"/>
                                                    <ScoreDistribution value="2" recordCount="0.0"/>
                                                    <ScoreDistribution value="3" recordCount="0.0"/>
                                                    <ScoreDistribution value="4" recordCount="0.0"/>
                                                    <ScoreDistribution value="5" recordCount="0.0"/>
                                                    <ScoreDistribution value="6" recordCount="0.0"/>
                                                    <ScoreDistribution value="7" recordCount="0.0"/>
                                                    <ScoreDistribution value="8" recordCount="22.0"/>
                                                    <ScoreDistribution value="9" recordCount="0.0"/>
                                                </Node>
                                            </Node>
                                        </Node>
                                    </Node>
                                </Node>
                                <Node id="92">
                                    <SimplePredicate field="double(38)" operator="greaterThan" value="1.5"/>
                                    <Node id="93">
                                        <SimplePredicate field="double(5)" operator="lessOrEqual" value="3.0"/>
                                        <Node id="94" score="3" recordCount="1.0">
                                            <SimplePredicate field="double(21)" operator="lessOrEqual" value="0.5"/>
                                            <ScoreDistribution value="0" recordCount="0.0"/>
                                            <ScoreDistribution value="1" recordCount="0.0"/>
                                            <ScoreDistribution value="2" recordCount="0.0"/>
                                            <ScoreDistribution value="3" recordCount="1.0"/>
                                            <ScoreDistribution value="4" recordCount="0.0"/>
                                            <ScoreDistribution value="5" recordCount="0.0"/>
                                            <ScoreDistribution value="6" recordCount="0.0"/>
                                            <ScoreDistribution value="7" recordCount="0.0"/>
                                            <ScoreDistribution value="8" recordCount="0.0"/>
                                            <ScoreDistribution value="9" recordCount="0.0"/>
                                        </Node>
                                        <Node id="95" score="4" recordCount="1.0">
                                            <SimplePredicate field="double(21)" operator="greaterThan" value="0.5"/>
                                            <ScoreDistribution value="0" recordCount="0.0"/>
                                            <ScoreDistribution value="1" recordCount="0.0"/>
                                            <ScoreDistribution value="2" recordCount="0.0"/>
                                            <ScoreDistribution value="3" recordCount="0.0"/>
                                            <ScoreDistribution value="4" recordCount="1.0"/>
                                            <ScoreDistribution value="5" recordCount="0.0"/>
                                            <ScoreDistribution value="6" recordCount="0.0"/>
                                            <ScoreDistribution value="7" recordCount="0.0"/>
                                            <ScoreDistribution value="8" recordCount="0.0"/>
                                            <ScoreDistribution value="9" recordCount="0.0"/>
                                        </Node>
                                    </Node>
                                    <Node id="96" score="7" recordCount="22.0">
                                        <SimplePredicate field="double(5)" operator="greaterThan" value="3.0"/>
                                        <ScoreDistribution value="0" recordCount="0.0"/>
                                        <ScoreDistribution value="1" recordCount="0.0"/>
                                        <ScoreDistribution value="2" recordCount="0.0"/>
                                        <ScoreDistribution value="3" recordCount="0.0"/>
                                        <ScoreDistribution value="4" recordCount="0.0"/>
                                        <ScoreDistribution value="5" recordCount="0.0"/>
                                        <ScoreDistribution value="6" recordCount="0.0"/>
                                        <ScoreDistribution value="7" recordCount="22.0"/>
                                        <ScoreDistribution value="8" recordCount="0.0"/>
                                        <ScoreDistribution value="9" recordCount="0.0"/>
                                    </Node>
                                </Node>
                            </Node>
                            <Node id="97">
                                <SimplePredicate field="double(54)" operator="greaterThan" value="1.5"/>
                                <Node id="98">
                                    <SimplePredicate field="double(45)" operator="lessOrEqual" value="8.5"/>
                                    <Node id="99" score="1" recordCount="1.0">
                                        <SimplePredicate field="double(4)" operator="lessOrEqual" value="0.5"/>
                                        <ScoreDistribution value="0" recordCount="0.0"/>
                                        <ScoreDistribution value="1" recordCount="1.0"/>
                                        <ScoreDistribution value="2" recordCount="0.0"/>
                                        <ScoreDistribution value="3" recordCount="0.0"/>
                                        <ScoreDistribution value="4" recordCount="0.0"/>
                                        <ScoreDistribution value="5" recordCount="0.0"/>
                                        <ScoreDistribution value="6" recordCount="0.0"/>
                                        <ScoreDistribution value="7" recordCount="0.0"/>
                                        <ScoreDistribution value="8" recordCount="0.0"/>
                                        <ScoreDistribution value="9" recordCount="0.0"/>
                                    </Node>
                                    <Node id="100">
                                        <SimplePredicate field="double(4)" operator="greaterThan" value="0.5"/>
                                        <Node id="101" score="2" recordCount="83.0">
                                            <SimplePredicate field="double(55)" operator="lessOrEqual" value="7.0"/>
                                            <ScoreDistribution value="0" recordCount="0.0"/>
                                            <ScoreDistribution value="1" recordCount="0.0"/>
                                            <ScoreDistribution value="2" recordCount="83.0"/>
                                            <ScoreDistribution value="3" recordCount="0.0"/>
                                            <ScoreDistribution value="4" recordCount="0.0"/>
                                            <ScoreDistribution value="5" recordCount="0.0"/>
                                            <ScoreDistribution value="6" recordCount="0.0"/>
                                            <ScoreDistribution value="7" recordCount="0.0"/>
                                            <ScoreDistribution value="8" recordCount="0.0"/>
                                            <ScoreDistribution value="9" recordCount="0.0"/>
                                        </Node>
                                        <Node id="102" score="1" recordCount="1.0">
                                            <SimplePredicate field="double(55)" operator="greaterThan" value="7.0"/>
                                            <ScoreDistribution value="0" recordCount="0.0"/>
                                            <ScoreDistribution value="1" recordCount="1.0"/>
                                            <ScoreDistribution value="2" recordCount="0.0"/>
                                            <ScoreDistribution value="3" recordCount="0.0"/>
                                            <ScoreDistribution value="4" recordCount="0.0"/>
                                            <ScoreDistribution value="5" recordCount="0.0"/>
                                            <ScoreDistribution value="6" recordCount="0.0"/>
                                            <ScoreDistribution value="7" recordCount="0.0"/>
                                            <ScoreDistribution value="8" recordCount="0.0"/>
                                            <ScoreDistribution value="9" recordCount="0.0"/>
                                        </Node>
                                    </Node>
                                </Node>
                                <Node id="103">
                                    <SimplePredicate field="double(45)" operator="greaterThan" value="8.5"/>
                                    <Node id="104">
                                        <SimplePredicate field="double(52)" operator="lessOrEqual" value="11.0"/>
                                        <Node id="105">
                                            <SimplePredicate field="double(21)" operator="lessOrEqual" value="8.0"/>
                                            <Node id="106" score="3" recordCount="1.0">
                                                <SimplePredicate field="double(62)" operator="lessOrEqual" value="1.0"/>
                                                <ScoreDistribution value="0" recordCount="0.0"/>
                                                <ScoreDistribution value="1" recordCount="0.0"/>
                                                <ScoreDistribution value="2" recordCount="0.0"/>
                                                <ScoreDistribution value="3" recordCount="1.0"/>
                                                <ScoreDistribution value="4" recordCount="0.0"/>
                                                <ScoreDistribution value="5" recordCount="0.0"/>
                                                <ScoreDistribution value="6" recordCount="0.0"/>
                                                <ScoreDistribution value="7" recordCount="0.0"/>
                                                <ScoreDistribution value="8" recordCount="0.0"/>
                                                <ScoreDistribution value="9" recordCount="0.0"/>
                                            </Node>
                                            <Node id="107" score="6" recordCount="1.0">
                                                <SimplePredicate field="double(62)" operator="greaterThan" value="1.0"/>
                                                <ScoreDistribution value="0" recordCount="0.0"/>
                                                <ScoreDistribution value="1" recordCount="0.0"/>
                                                <ScoreDistribution value="2" recordCount="0.0"/>
                                                <ScoreDistribution value="3" recordCount="0.0"/>
                                                <ScoreDistribution value="4" recordCount="0.0"/>
                                                <ScoreDistribution value="5" recordCount="0.0"/>
                                                <ScoreDistribution value="6" recordCount="1.0"/>
                                                <ScoreDistribution value="7" recordCount="0.0"/>
                                                <ScoreDistribution value="8" recordCount="0.0"/>
                                                <ScoreDistribution value="9" recordCount="0.0"/>
                                            </Node>
                                        </Node>
                                        <Node id="108" score="8" recordCount="11.0">
                                            <SimplePredicate field="double(21)" operator="greaterThan" value="8.0"/>
                                            <ScoreDistribution value="0" recordCount="0.0"/>
                                            <ScoreDistribution value="1" recordCount="0.0"/>
                                            <ScoreDistribution value="2" recordCount="0.0"/>
                                            <ScoreDistribution value="3" recordCount="0.0"/>
                                            <ScoreDistribution value="4" recordCount="0.0"/>
                                            <ScoreDistribution value="5" recordCount="0.0"/>
                                            <ScoreDistribution value="6" recordCount="0.0"/>
                                            <ScoreDistribution value="7" recordCount="0.0"/>
                                            <ScoreDistribution value="8" recordCount="11.0"/>
                                            <ScoreDistribution value="9" recordCount="0.0"/>
                                        </Node>
                                    </Node>
                                    <Node id="109">
                                        <SimplePredicate field="double(52)" operator="greaterThan" value="11.0"/>
                                        <Node id="110">
                                            <SimplePredicate field="double(51)" operator="lessOrEqual" value="13.5"/>
                                            <Node id="111" score="1" recordCount="2.0">
                                                <SimplePredicate field="double(9)" operator="lessOrEqual" value="0.5"/>
                                                <ScoreDistribution value="0" recordCount="0.0"/>
                                                <ScoreDistribution value="1" recordCount="2.0"/>
                                                <ScoreDistribution value="2" recordCount="0.0"/>
                                                <ScoreDistribution value="3" recordCount="0.0"/>
                                                <ScoreDistribution value="4" recordCount="0.0"/>
                                                <ScoreDistribution value="5" recordCount="0.0"/>
                                                <ScoreDistribution value="6" recordCount="0.0"/>
                                                <ScoreDistribution value="7" recordCount="0.0"/>
                                                <ScoreDistribution value="8" recordCount="0.0"/>
                                                <ScoreDistribution value="9" recordCount="0.0"/>
                                            </Node>
                                            <Node id="112" score="3" recordCount="2.0">
                                                <SimplePredicate field="double(9)" operator="greaterThan" value="0.5"/>
                                                <ScoreDistribution value="0" recordCount="0.0"/>
                                                <ScoreDistribution value="1" recordCount="0.0"/>
                                                <ScoreDistribution value="2" recordCount="0.0"/>
                                                <ScoreDistribution value="3" recordCount="2.0"/>
                                                <ScoreDistribution value="4" recordCount="0.0"/>
                                                <ScoreDistribution value="5" recordCount="0.0"/>
                                                <ScoreDistribution value="6" recordCount="0.0"/>
                                                <ScoreDistribution value="7" recordCount="0.0"/>
                                                <ScoreDistribution value="8" recordCount="0.0"/>
                                                <ScoreDistribution value="9" recordCount="0.0"/>
                                            </Node>
                                        </Node>
                                        <Node id="113" score="2" recordCount="7.0">
                                            <SimplePredicate field="double(51)" operator="greaterThan" value="13.5"/>
                                            <ScoreDistribution value="0" recordCount="0.0"/>
                                            <ScoreDistribution value="1" recordCount="0.0"/>
                                            <ScoreDistribution value="2" recordCount="7.0"/>
                                            <ScoreDistribution value="3" recordCount="0.0"/>
                                            <ScoreDistribution value="4" recordCount="0.0"/>
                                            <ScoreDistribution value="5" recordCount="0.0"/>
                                            <ScoreDistribution value="6" recordCount="0.0"/>
                                            <ScoreDistribution value="7" recordCount="0.0"/>
                                            <ScoreDistribution value="8" recordCount="0.0"/>
                                            <ScoreDistribution value="9" recordCount="0.0"/>
                                        </Node>
                                    </Node>
                                </Node>
                            </Node>
                        </Node>
                    </Node>
                    <Node id="114">
                        <SimplePredicate field="double(26)" operator="greaterThan" value="5.5"/>
                        <Node id="115">
                            <SimplePredicate field="double(21)" operator="lessOrEqual" value="0.5"/>
                            <Node id="116">
                                <SimplePredicate field="double(42)" operator="lessOrEqual" value="8.5"/>
                                <Node id="117">
                                    <SimplePredicate field="double(5)" operator="lessOrEqual" value="1.5"/>
                                    <Node id="118">
                                        <SimplePredicate field="double(19)" operator="lessOrEqual" value="15.5"/>
                                        <Node id="119" score="2" recordCount="5.0">
                                            <SimplePredicate field="double(37)" operator="lessOrEqual" value="0.5"/>
                                            <ScoreDistribution value="0" recordCount="0.0"/>
                                            <ScoreDistribution value="1" recordCount="0.0"/>
                                            <ScoreDistribution value="2" recordCount="5.0"/>
                                            <ScoreDistribution value="3" recordCount="0.0"/>
                                            <ScoreDistribution value="4" recordCount="0.0"/>
                                            <ScoreDistribution value="5" recordCount="0.0"/>
                                            <ScoreDistribution value="6" recordCount="0.0"/>
                                            <ScoreDistribution value="7" recordCount="0.0"/>
                                            <ScoreDistribution value="8" recordCount="0.0"/>
                                            <ScoreDistribution value="9" recordCount="0.0"/>
                                        </Node>
                                        <Node id="120">
                                            <SimplePredicate field="double(37)" operator="greaterThan" value="0.5"/>
                                            <Node id="121">
                                                <SimplePredicate field="double(3)" operator="lessOrEqual" value="13.5"/>
                                                <Node id="122">
                                                    <SimplePredicate field="double(29)" operator="lessOrEqual" value="7.5"/>
                                                    <Node id="123" score="6" recordCount="1.0">
                                                        <SimplePredicate field="double(61)" operator="lessOrEqual" value="13.0"/>
                                                        <ScoreDistribution value="0" recordCount="0.0"/>
                                                        <ScoreDistribution value="1" recordCount="0.0"/>
                                                        <ScoreDistribution value="2" recordCount="0.0"/>
                                                        <ScoreDistribution value="3" recordCount="0.0"/>
                                                        <ScoreDistribution value="4" recordCount="0.0"/>
                                                        <ScoreDistribution value="5" recordCount="0.0"/>
                                                        <ScoreDistribution value="6" recordCount="1.0"/>
                                                        <ScoreDistribution value="7" recordCount="0.0"/>
                                                        <ScoreDistribution value="8" recordCount="0.0"/>
                                                        <ScoreDistribution value="9" recordCount="0.0"/>
                                                    </Node>
                                                    <Node id="124">
                                                        <SimplePredicate field="double(61)" operator="greaterThan" value="13.0"/>
                                                        <Node id="125" score="8" recordCount="1.0">
                                                            <SimplePredicate field="double(18)" operator="lessOrEqual" value="15.0"/>
                                                            <ScoreDistribution value="0" recordCount="0.0"/>
                                                            <ScoreDistribution value="1" recordCount="0.0"/>
                                                            <ScoreDistribution value="2" recordCount="0.0"/>
                                                            <ScoreDistribution value="3" recordCount="0.0"/>
                                                            <ScoreDistribution value="4" recordCount="0.0"/>
                                                            <ScoreDistribution value="5" recordCount="0.0"/>
                                                            <ScoreDistribution value="6" recordCount="0.0"/>
                                                            <ScoreDistribution value="7" recordCount="0.0"/>
                                                            <ScoreDistribution value="8" recordCount="1.0"/>
                                                            <ScoreDistribution value="9" recordCount="0.0"/>
                                                        </Node>
                                                        <Node id="126" score="9" recordCount="1.0">
                                                            <SimplePredicate field="double(18)" operator="greaterThan" value="15.0"/>
                                                            <ScoreDistribution value="0" recordCount="0.0"/>
                                                            <ScoreDistribution value="1" recordCount="0.0"/>
                                                            <ScoreDistribution value="2" recordCount="0.0"/>
                                                            <ScoreDistribution value="3" recordCount="0.0"/>
                                                            <ScoreDistribution value="4" recordCount="0.0"/>
                                                            <ScoreDistribution value="5" recordCount="0.0"/>
                                                            <ScoreDistribution value="6" recordCount="0.0"/>
                                                            <ScoreDistribution value="7" recordCount="0.0"/>
                                                            <ScoreDistribution value="8" recordCount="0.0"/>
                                                            <ScoreDistribution value="9" recordCount="1.0"/>
                                                        </Node>
                                                    </Node>
                                                </Node>
                                                <Node id="127" score="4" recordCount="2.0">
                                                    <SimplePredicate field="double(29)" operator="greaterThan" value="7.5"/>
                                                    <ScoreDistribution value="0" recordCount="0.0"/>
                                                    <ScoreDistribution value="1" recordCount="0.0"/>
                                                    <ScoreDistribution value="2" recordCount="0.0"/>
                                                    <ScoreDistribution value="3" recordCount="0.0"/>
                                                    <ScoreDistribution value="4" recordCount="2.0"/>
                                                    <ScoreDistribution value="5" recordCount="0.0"/>
                                                    <ScoreDistribution value="6" recordCount="0.0"/>
                                                    <ScoreDistribution value="7" recordCount="0.0"/>
                                                    <ScoreDistribution value="8" recordCount="0.0"/>
                                                    <ScoreDistribution value="9" recordCount="0.0"/>
                                                </Node>
                                            </Node>
                                            <Node id="128" score="3" recordCount="3.0">
                                                <SimplePredicate field="double(3)" operator="greaterThan" value="13.5"/>
                                                <ScoreDistribution value="0" recordCount="0.0"/>
                                                <ScoreDistribution value="1" recordCount="0.0"/>
                                                <ScoreDistribution value="2" recordCount="0.0"/>
                                                <ScoreDistribution value="3" recordCount="3.0"/>
                                                <ScoreDistribution value="4" recordCount="0.0"/>
                                                <ScoreDistribution value="5" recordCount="0.0"/>
                                                <ScoreDistribution value="6" recordCount="0.0"/>
                                                <ScoreDistribution value="7" recordCount="0.0"/>
                                                <ScoreDistribution value="8" recordCount="0.0"/>
                                                <ScoreDistribution value="9" recordCount="0.0"/>
                                            </Node>
                                        </Node>
                                    </Node>
                                    <Node id="129">
                                        <SimplePredicate field="double(19)" operator="greaterThan" value="15.5"/>
                                        <Node id="130" score="1" recordCount="15.0">
                                            <SimplePredicate field="double(37)" operator="lessOrEqual" value="2.5"/>
                                            <ScoreDistribution value="0" recordCount="0.0"/>
                                            <ScoreDistribution value="1" recordCount="15.0"/>
